-2.270325832068920135e-02 -5.112046375870704651e-02 -1.027638539671897888e-01 -1.591083854436874390e-01 -1.737833395600318909e-02 -4.721810109913349152e-03 -7.674270868301391602e-02 1.415451616048812866e-01 -5.507750064134597778e-02 -3.923857212066650391e-02 -5.398133769631385803e-03 1.026780977845191956e-01 -2.657673954963684082e-01 3.942622244358062744e-02 8.138620108366012573e-02 7.751847058534622192e-02 1.355921626091003418e-01 5.644701421260833740e-03 -1.009646654129028320e-01 -6.694965064525604248e-02 -1.147621572017669678e-01 4.711139947175979614e-02 1.110337600111961365e-01 -2.935562655329704285e-02 -7.952773571014404297e-02 8.122672140598297119e-02 -2.090525627136230469e-02 1.027222648262977600e-01 4.928874224424362183e-02 7.168655097484588623e-02 -2.332828380167484283e-02 5.748613551259040833e-02 -1.336212642490863800e-02 -1.124021783471107483e-01 -9.310682304203510284e-03 7.844028994441032410e-03 5.830271914601325989e-02 1.370268762111663818e-01 -7.657279819250106812e-02 1.745783239603042603e-01 4.308230429887771606e-02 -1.670727133750915527e-02 -1.077271923422813416e-01 6.320549547672271729e-02 -7.137629203498363495e-03 -8.831992745399475098e-02 -1.609669476747512817e-01 -3.665514290332794189e-02 8.061088621616363525e-02 7.821916788816452026e-02 4.553385078907012939e-02 1.893249340355396271e-02 1.182165369391441345e-01 -5.662220716476440430e-02 -1.030702665448188782e-01 -5.507173389196395874e-02 6.743056327104568481e-02 8.880887180566787720e-02 -1.324197649955749512e-01 -4.739290103316307068e-02 -1.558561027050018311e-01 4.843293689191341400e-03 4.309614747762680054e-02 5.422111228108406067e-02 -1.600386649370193481e-01 -1.978681981563568115e-01 -1.323948707431554794e-02 6.718844641000032425e-03 -7.537146098911762238e-03 -2.933959662914276123e-02 -3.697616606950759888e-02 -2.238104492425918579e-01 1.804712712764739990e-01 8.163866400718688965e-02 -8.164381235837936401e-02 2.790682613849639893e-01 -6.919804960489273071e-02 -1.730712801218032837e-01 2.373214662075042725e-01 -6.428144127130508423e-02 -4.532778693828731775e-04 -8.502837270498275757e-03 -1.409731358289718628e-01 9.025978296995162964e-02 0.000000000000000000e+00 0.000000000000000000e+00 0.000000000000000000e+00 0.000000000000000000e+00 
0.000000000000000000e+00 0.000000000000000000e+00 0.000000000000000000e+00 0.000000000000000000e+00 0.000000000000000000e+00 0.000000000000000000e+00 0.000000000000000000e+00 0.000000000000000000e+00
7.094685733318328857e-02 -1.435865759849548340e-01 5.300729349255561829e-02 -7.091967761516571045e-02 9.579069912433624268e-02 1.336007565259933472e-01 -1.022978499531745911e-01 1.574227362871170044e-01 -8.725897222757339478e-02 -2.507281005382537842e-01 1.451355963945388794e-02 2.555563151836395264e-01 2.223557084798812866e-01 4.758501425385475159e-02 2.986663207411766052e-02 -4.578896239399909973e-02 -1.181543320417404175e-01 5.227965861558914185e-02 1.124132648110389709e-01 -8.664564043283462524e-02 -3.824847564101219177e-02 -1.065370216965675354e-01 1.989869922399520874e-01 4.084809683263301849e-03 9.960071742534637451e-02 -3.787255287170410156e-02 3.476062417030334473e-02 -1.117051765322685242e-01 6.343410350382328033e-04 -1.778124123811721802e-01 -8.014126121997833252e-02 -2.144273370504379272e-03 -1.066642254590988159e-01 1.172185689210891724e-01 4.008157178759574890e-02 -6.618107855319976807e-02 4.504944756627082825e-02 -1.299750059843063354e-01 1.759977787733078003e-01 1.617642194032669067e-01 -1.066027060151100159e-01 -2.793712913990020752e-02 -3.389401733875274658e-02 3.580574411898851395e-04 1.556568145751953125e-01 1.699082851409912109e-01 -3.159819170832633972e-02 -7.760088145732879639e-02 -1.430555135011672974e-01 3.632331266999244690e-02 3.348505124449729919e-02 -4.994778335094451904e-02 -1.694861054420471191e-01 5.512067303061485291e-02 1.366069614887237549e-01 1.690603792667388916e-02 -6.923990696668624878e-02 -1.572550386190414429e-01 1.189982444047927856e-01 -1.881374418735504150e-02 3.095882236957550049e-01 -9.923379868268966675e-03 1.097524464130401611e-01 -8.593599498271942139e-02 7.505679875612258911e-02 -9.149368852376937866e-02 1.058296039700508118e-01 7.157967239618301392e-02 2.604776024818420410e-01 5.076568573713302612e-02 -1.057993099093437195e-01 3.446700423955917358e-02 1.057615205645561218e-01 -1.752953231334686279e-01 -1.661978289484977722e-02 -2.242253422737121582e-01 2.209204286336898804e-01 -1.254584193229675293e-01 -1.951935738325119019e-01 -4.847010597586631775e-02 3.690339997410774231e-02 -4.164681956171989441e-02 -1.370881944894790649e-01 2.047286368906497955e-02 0.000000000000000000e+00 0.000000000000000000e+00 0.000000000000000000e+00 0.000000000000000000e+00 
0.000000000000000000e+00 0.000000000000000000e+00 0.000000000000000000e+00 0.000000000000000000e+00 0.000000000000000000e+00 0.000000000000000000e+00 0.000000000000000000e+00 0.000000000000000000e+00 
-2.080759964883327484e-02 1.976905614137649536e-01 -1.383142080157995224e-02 -1.160162985324859619e-01 -1.837895065546035767e-02 1.178770884871482849e-01 2.132897824048995972e-01 6.775841861963272095e-02 -9.374415129423141479e-02 1.449445728212594986e-02 4.327280819416046143e-02 -1.782702058553695679e-01 5.532795935869216919e-02 4.823758080601692200e-02 4.751132056117057800e-02 2.826027572154998779e-03 4.586916789412498474e-02 4.948989301919937134e-02 4.722178913652896881e-03 -1.111743375658988953e-01 5.409216880798339844e-02 -1.503685954958200455e-02 -9.072280675172805786e-02 -5.786781385540962219e-02 4.964527487754821777e-02 4.441062733530998230e-02 8.741154521703720093e-02 1.592192240059375763e-02 -5.358059704303741455e-02 9.391750395298004150e-02 9.555312804877758026e-03 1.347291022539138794e-01 7.250753790140151978e-02 -5.358305200934410095e-02 1.608965098857879639e-01 1.715159416198730469e-02 2.406364977359771729e-01 -2.166012488305568695e-02 6.497853994369506836e-02 2.360478937625885010e-01 7.612279802560806274e-02 -2.012829110026359558e-02 2.129960954189300537e-01 1.313103139400482178e-01 2.881928719580173492e-02 -1.126457303762435913e-01 -3.916905447840690613e-02 -2.132302895188331604e-02 6.222626939415931702e-02 -7.146225869655609131e-02 1.937997043132781982e-01 -7.394241541624069214e-02 9.668273478746414185e-02 1.187978759407997131e-01 1.820344924926757812e-01 4.966455325484275818e-02 -1.798932701349258423e-01 2.660280792042613029e-03 1.239381656050682068e-01 -5.749813467264175415e-02 -2.603315711021423340e-01 -5.207889154553413391e-02 -7.895152270793914795e-02 3.915038332343101501e-02 9.517386555671691895e-02 -3.241451382637023926e-01 2.843335038051009178e-03 2.031585201621055603e-02 1.244910359382629395e-01 3.372066468000411987e-02 -7.228335738182067871e-02 -2.126946896314620972e-01 -1.017652675509452820e-01 -1.402679234743118286e-01 1.232110932469367981e-01 8.147558569908142090e-02 1.467455029487609863e-01 2.659312188625335693e-01 -2.081549316644668579e-01 -1.178676914423704147e-02 2.976665040478110313e-03 3.795813769102096558e-02 1.280310600996017456e-01 -1.633534878492355347e-01  0.000000000000000000e+00 0.000000000000000000e+00 0.000000000000000000e+00 0.000000000000000000e+00 
0.000000000000000000e+00 0.000000000000000000e+00 0.000000000000000000e+00 0.000000000000000000e+00 0.000000000000000000e+00 0.000000000000000000e+00 0.000000000000000000e+00 0.000000000000000000e+00 
6.404886394739151001e-02 2.790498081594705582e-03 1.201654747128486633e-01 2.083860784769058228e-01 -5.566815286874771118e-02 1.035836338996887207e-01 -7.715491577982902527e-03 2.164051234722137451e-01 -4.188963770866394043e-02 -3.604628145694732666e-02 2.347411215305328369e-02 -8.071497827768325806e-02 6.623601168394088745e-02 -1.128877103328704834e-01 1.020419374108314514e-01 -1.170978471636772156e-01 -2.417876571416854858e-02 3.875889629125595093e-02 3.525865077972412109e-02 -5.910851061344146729e-02 2.537454068660736084e-01 9.274646639823913574e-02 -1.624234616756439209e-01 -3.583294525742530823e-02 2.587896399199962616e-02 6.270579993724822998e-02 -1.612635552883148193e-01 -7.929377257823944092e-02 4.213194176554679871e-02 7.307294011116027832e-02 -1.521534472703933716e-01 -1.854556053876876831e-02 -3.113551810383796692e-02 -1.380709260702133179e-01 -4.626041278243064880e-02 8.375527709722518921e-02 -5.158898606896400452e-02 1.726933121681213379e-01 -2.680994570255279541e-02 -2.243786752223968506e-01 5.593769252300262451e-03 1.253815144300460815e-01 -9.503344446420669556e-02 -6.938780192285776138e-03 -1.073848456144332886e-01 6.579910963773727417e-02 1.447578147053718567e-02 1.515368819236755371e-01 2.207090705633163452e-02 1.311994940042495728e-01 -1.557498574256896973e-01 -4.730701074004173279e-02 1.742856353521347046e-01 7.994388788938522339e-02 -1.076963618397712708e-01 1.022079885005950928e-01 -3.065777383744716644e-02 -1.994115114212036133e-01 2.368618547916412354e-01 6.186103820800781250e-02 5.357415974140167236e-02 -4.423147998750209808e-03 -9.102836251258850098e-02 1.909118331968784332e-02 7.859639078378677368e-02 7.728100568056106567e-02 -2.853243611752986908e-02 -8.965031802654266357e-02 -7.121469825506210327e-02 -3.166223317384719849e-02 -3.832916542887687683e-02 -8.346690237522125244e-02 -9.278281778097152710e-02 1.586780883371829987e-02 1.751747280359268188e-01 3.991604782640933990e-03 -8.693428337574005127e-02 1.796851158142089844e-01 1.625409573316574097e-01 2.914172410964965820e-01 -1.598654240369796753e-01 -1.487554609775543213e-02 3.010386414825916290e-02 -1.604273766279220581e-01 0.000000000000000000e+00 0.000000000000000000e+00 0.000000000000000000e+00 0.000000000000000000e+00 
0.000000000000000000e+00 0.000000000000000000e+00 0.000000000000000000e+00 0.000000000000000000e+00 0.000000000000000000e+00 0.000000000000000000e+00 0.000000000000000000e+00 0.000000000000000000e+00 
1.080088391900062561e-01 9.399061650037765503e-02 3.890390694141387939e-02 -1.793688982725143433e-01 4.179751500487327576e-02 -1.148755028843879700e-01 -1.124786864966154099e-02 -1.266324333846569061e-02 2.459330298006534576e-02 1.678838580846786499e-01 -1.787832006812095642e-02 1.795435138046741486e-02 -8.567145466804504395e-02 7.145715877413749695e-03 -2.730793505907058716e-02 3.843942284584045410e-02 -5.012235790491104126e-02 7.828669995069503784e-02 1.065381243824958801e-01 3.383462131023406982e-02 -3.614908456802368164e-02 -6.226736307144165039e-02 2.102162688970565796e-01 -9.700243175029754639e-02 -1.252702623605728149e-01 1.435908526182174683e-01 6.385766714811325073e-02 -6.167579069733619690e-02 3.751846775412559509e-02 -3.071005828678607941e-02 -1.225443258881568909e-01 2.122426033020019531e-02 5.093233659863471985e-02 -1.980369212105870247e-03 4.100846499204635620e-02 -4.061942547559738159e-02 -1.193132833577692509e-03 -2.600482106208801270e-01 -1.053211390972137451e-01 -1.789287850260734558e-02 2.076123841106891632e-02 -1.508627533912658691e-01 1.451874375343322754e-01 9.773716330528259277e-02 1.721709221601486206e-01 -3.325702995061874390e-02 -1.525514274835586548e-01 9.261933714151382446e-02 -1.267046183347702026e-01 -2.614170610904693604e-01 1.304663270711898804e-01 -3.936304152011871338e-02 -2.547041773796081543e-01 -2.567959763109683990e-02 1.558205336332321167e-01 9.491411596536636353e-02 -8.221413195133209229e-02 7.117432355880737305e-02 1.020436361432075500e-01 1.501741074025630951e-02 1.800662279129028320e-02 -5.197674408555030823e-02 -9.637346118688583374e-02 -4.408068582415580750e-02 1.307279616594314575e-01 6.345139443874359131e-02 -6.869693845510482788e-02 1.019904613494873047e-01 -2.023424208164215088e-01 1.778448373079299927e-02 1.153630316257476807e-01 3.481855690479278564e-01 -3.377811610698699951e-02 2.813550457358360291e-02 -1.592402756214141846e-01 1.575779765844345093e-01 -5.188615247607231140e-02 -1.291470974683761597e-01 4.393669962882995605e-02 -1.424716413021087646e-01 -3.420201130211353302e-03 8.000927418470382690e-02 2.674398422241210938e-01 4.799431934952735901e-02 0.000000000000000000e+00 0.000000000000000000e+00 0.000000000000000000e+00 0.000000000000000000e+00 
0.000000000000000000e+00 0.000000000000000000e+00 0.000000000000000000e+00 0.000000000000000000e+00 0.000000000000000000e+00 0.000000000000000000e+00 0.000000000000000000e+00 0.000000000000000000e+00
-7.261601742357015610e-03 -4.599100351333618164e-02 1.243818253278732300e-01 2.138777524232864380e-01 -3.870936483144760132e-02 -9.397301822900772095e-02 8.313912153244018555e-02 -8.101751655340194702e-02 5.063458904623985291e-02 -2.060026302933692932e-02 -1.865847557783126831e-01 5.590952932834625244e-03 1.255663633346557617e-01 -1.312631815671920776e-01 -1.998538523912429810e-01 -1.510664969682693481e-01 -1.566733568906784058e-01 -4.156003147363662720e-02 4.405149817466735840e-02 7.962913811206817627e-02 -1.236578598618507385e-01 -7.582862675189971924e-02 -9.235482662916183472e-02 -5.827141925692558289e-02 2.616211958229541779e-02 4.519939050078392029e-02 3.549410030245780945e-02 2.588307559490203857e-01 4.704939201474189758e-02 1.663166582584381104e-01 1.613145172595977783e-01 1.617362909018993378e-02 6.334932148456573486e-02 -2.563107199966907501e-02 1.693334281444549561e-01 9.831228852272033691e-02 -1.475762873888015747e-01 8.526057004928588867e-02 1.198328733444213867e-01 1.075305715203285217e-01 5.085635185241699219e-02 8.499039709568023682e-02 -1.250258982181549072e-01 -3.546992689371109009e-02 -2.979373000562191010e-02 1.213450282812118530e-01 -2.684195758774876595e-03 -1.744571477174758911e-01 5.742984637618064880e-02 2.022383213043212891e-01 -1.382908076047897339e-01 -2.311180084943771362e-01 9.162483736872673035e-03 6.020564213395118713e-02 -1.615348607301712036e-01 -8.670550584793090820e-02 -3.171714767813682556e-02 -1.712971180677413940e-01 -1.408876627683639526e-01 2.165981233119964600e-01 -1.626783311367034912e-01 1.360287982970476151e-02 -1.808667555451393127e-02 7.494933903217315674e-02 -5.203348118811845779e-03 2.413605153560638428e-01 5.950650572776794434e-02 -2.993238158524036407e-03 -1.979511678218841553e-01 9.632200002670288086e-03 -3.107287175953388214e-02 -4.790417850017547607e-03 -1.436054408550262451e-01 2.813007235527038574e-01 -5.921902135014533997e-02 -2.359266392886638641e-02 -3.299744427204132080e-02 -1.572875864803791046e-02 -6.988058239221572876e-02 1.765259504318237305e-01 -1.235877424478530884e-01 2.185413800179958344e-02 1.427619904279708862e-01 -7.945185527205467224e-03 0.000000000000000000e+00 0.000000000000000000e+00 0.000000000000000000e+00 0.000000000000000000e+00 
0.000000000000000000e+00 0.000000000000000000e+00 0.000000000000000000e+00 0.000000000000000000e+00 0.000000000000000000e+00 0.000000000000000000e+00 0.000000000000000000e+00 0.000000000000000000e+00 
6.774209439754486084e-02 -1.401170790195465088e-01 2.750674029812216759e-03 1.111792847514152527e-01 1.060279458761215210e-01 8.919726312160491943e-02 1.545431613922119141e-01 -1.403480917215347290e-01 -9.877106547355651855e-02 -6.133472546935081482e-02 -1.119765639305114746e-01 -1.777772903442382812e-01 -5.836862325668334961e-02 1.452937722206115723e-02 -1.221179664134979248e-01 7.191947847604751587e-02 -2.373814210295677185e-02 -5.347964540123939514e-02 -8.669330924749374390e-02 2.185084521770477295e-01 2.671783417463302612e-02 5.402926355600357056e-02 -2.540111355483531952e-02 1.269200816750526428e-02 7.481321692466735840e-02 1.300604641437530518e-01 -1.928104013204574585e-01 2.196461111307144165e-01 -1.043219119310379028e-01 -1.386407911777496338e-01 8.947200328111648560e-02 -5.165494978427886963e-02 -6.696003675460815430e-02 -9.494400024414062500e-02 -3.150508180260658264e-02 -6.740859895944595337e-02 -9.145889431238174438e-02 -2.314726263284683228e-02 -6.626509130001068115e-02 1.517562121152877808e-01 5.599283427000045776e-02 -2.686370164155960083e-02 1.932736188173294067e-01 -8.714257180690765381e-02 8.545923978090286255e-02 -3.053517639636993408e-02 8.129968494176864624e-02 -1.368276774883270264e-01 -1.173238083720207214e-01 1.626377105712890625e-01 -1.171840205788612366e-01 2.333600223064422607e-01 -1.593624055385589600e-01 3.437213972210884094e-02 -9.172447025775909424e-04 8.661746978759765625e-02 -5.639777705073356628e-02 1.891672462224960327e-01 -1.354704946279525757e-01 -1.713559925556182861e-01 -5.214670300483703613e-02 2.033471018075942993e-01 2.095215320587158203e-01 9.650921821594238281e-02 -1.233454644680023193e-01 -2.565297298133373260e-02 9.897914528846740723e-02 -3.085148148238658905e-02 -2.902380526065826416e-01 -8.046974241733551025e-02 -1.195118054747581482e-01 -4.339227080345153809e-02 9.084245562553405762e-02 2.398745864629745483e-01 -4.336064681410789490e-03 9.491790831089019775e-02 1.639762818813323975e-01 -1.638638377189636230e-01 -2.029590755701065063e-01 -1.963196545839309692e-01 1.073362976312637329e-01 -3.688640892505645752e-02 -1.539061665534973145e-01 2.120577171444892883e-02 0.000000000000000000e+00 0.000000000000000000e+00 0.000000000000000000e+00 0.000000000000000000e+00 
0.000000000000000000e+00 0.000000000000000000e+00 0.000000000000000000e+00 0.000000000000000000e+00 0.000000000000000000e+00 0.000000000000000000e+00 0.000000000000000000e+00 0.000000000000000000e+00 
-9.176694788038730621e-03 1.212510243058204651e-01 4.698986932635307312e-02 5.173696577548980713e-02 6.750539690256118774e-02 2.098089456558227539e-01 7.807689905166625977e-02 1.270134299993515015e-01 -1.213839370757341385e-02 -3.715902194380760193e-02 6.369844824075698853e-02 5.714723467826843262e-02 -1.373183820396661758e-02 -7.896434515714645386e-02 -2.022722959518432617e-01 -2.015384845435619354e-02 -1.607322543859481812e-01 -9.056103229522705078e-02 1.623504012823104858e-01 -8.296627551317214966e-02 5.342401564121246338e-02 9.388010948896408081e-02 1.962634967640042305e-03 -1.653476804494857788e-02 9.337737411260604858e-02 -7.702851295471191406e-02 2.144248038530349731e-01 -3.478644788265228271e-01 -3.117380430921912193e-03 1.362996697425842285e-01 2.213321328163146973e-01 8.724673092365264893e-02 -2.007089555263519287e-02 2.653373479843139648e-01 -7.137639820575714111e-02 -5.305020511150360107e-02 2.384171932935714722e-01 -8.239876478910446167e-02 -1.589542031288146973e-01 -3.023029491305351257e-02 -3.330342844128608704e-02 6.255900859832763672e-02 1.725996136665344238e-01 -1.004622057080268860e-01 5.238685384392738342e-02 2.265714108943939209e-02 -4.355157259851694107e-03 6.913023442029953003e-02 1.232858374714851379e-02 -1.228240597993135452e-02 9.967447817325592041e-02 -9.241135418415069580e-02 7.455988228321075439e-02 1.028277724981307983e-01 -1.740981042385101318e-01 1.795747689902782440e-02 8.815604448318481445e-02 -2.208516933023929596e-02 -6.194290518760681152e-02 9.261572360992431641e-02 -7.898680120706558228e-02 6.292240321636199951e-02 -8.418922126293182373e-02 5.517611280083656311e-02 -1.114045307040214539e-01 -1.181346923112869263e-01 5.182940512895584106e-02 -6.546570360660552979e-02 1.705268472433090210e-01 -4.908178374171257019e-02 1.763598024845123291e-01 1.122859939932823181e-01 1.561661064624786377e-01 -1.916431039571762085e-01 -9.642996639013290405e-02 -2.168768942356109619e-01 6.757080554962158203e-02 3.986760079860687256e-01 9.426046162843704224e-02 -1.832562536001205444e-01 8.949036151170730591e-02 -8.626642078161239624e-02 3.721952810883522034e-02 -1.347121410071849823e-02 0.000000000000000000e+00 0.000000000000000000e+00 0.000000000000000000e+00 0.000000000000000000e+00 
0.000000000000000000e+00 0.000000000000000000e+00 0.000000000000000000e+00 0.000000000000000000e+00 0.000000000000000000e+00 0.000000000000000000e+00 0.000000000000000000e+00 0.000000000000000000e+00 
4.618169367313385010e-02 1.071546822786331177e-01 1.704348064959049225e-02 -5.843882262706756592e-02 6.364122033119201660e-02 -6.685324758291244507e-02 -1.929360926151275635e-01 -1.323861330747604370e-01 -3.643105551600456238e-02 8.075065165758132935e-02 1.480510085821151733e-01 -6.830526888370513916e-02 1.825726330280303955e-01 -9.406173229217529297e-02 1.447565555572509766e-01 -1.189218088984489441e-01 6.390456855297088623e-02 9.716740995645523071e-02 -1.216621603816747665e-02 -5.452683940529823303e-02 1.491948962211608887e-01 3.409533947706222534e-02 -3.329201340675354004e-01 9.778541326522827148e-02 -5.454748123884201050e-02 3.001360781490802765e-02 4.573706537485122681e-02 9.266615658998489380e-02 -7.223796844482421875e-02 -8.640045672655105591e-02 -2.024550437927246094e-01 -2.099186927080154419e-01 6.418742239475250244e-02 -9.921637363731861115e-03 -1.785153001546859741e-01 6.005732342600822449e-02 2.976412139832973480e-02 -6.161920353770256042e-02 -1.897296607494354248e-01 1.036573648452758789e-01 -4.711249098181724548e-02 1.415735036134719849e-01 -6.458115577697753906e-02 -1.157322153449058533e-01 -1.388424658216536045e-03 -1.162737160921096802e-01 2.090658992528915405e-01 -1.500842720270156860e-01 1.869665831327438354e-01 4.124166816473007202e-02 -1.765155792236328125e-01 1.295969635248184204e-01 7.605660706758499146e-02 9.136196225881576538e-02 8.498809486627578735e-02 5.564208328723907471e-02 1.876633912324905396e-01 1.598127186298370361e-01 1.962034255266189575e-01 -1.447538882493972778e-01 -2.616668492555618286e-02 -7.777391374111175537e-02 -1.368310451507568359e-01 8.915659971535205841e-03 1.511468887329101562e-01 6.861782073974609375e-02 -1.466521918773651123e-01 -7.307118922472000122e-02 -1.034685000777244568e-01 5.773214250802993774e-02 -1.087763383984565735e-01 3.275507315993309021e-02 -1.787858605384826660e-01 1.160162240266799927e-01 -1.312938630580902100e-01 -3.608949109911918640e-02 -5.812820419669151306e-02 5.269143730401992798e-02 -1.014609634876251221e-01 9.627046436071395874e-02 8.114830404520034790e-02 -8.957866579294204712e-02 -1.512454003095626831e-01 1.880959421396255493e-01 0.000000000000000000e+00 0.000000000000000000e+00 0.000000000000000000e+00 0.000000000000000000e+00 
0.000000000000000000e+00 0.000000000000000000e+00 0.000000000000000000e+00 0.000000000000000000e+00 0.000000000000000000e+00 0.000000000000000000e+00 0.000000000000000000e+00 0.000000000000000000e+00 
-2.704608812928199768e-02 4.770928062498569489e-03 4.090236616320908070e-04 -1.512021273374557495e-01 7.094044983386993408e-02 -2.277595251798629761e-01 -3.165201051160693169e-03 -1.394113451242446899e-01 -6.594312191009521484e-02 1.070555076003074646e-01 5.817953497171401978e-02 4.321643710136413574e-02 1.150040850043296814e-01 -7.444862276315689087e-02 -2.450163289904594421e-02 1.115437746047973633e-01 7.950039952993392944e-02 5.486837774515151978e-02 -1.245092377066612244e-01 -1.743699163198471069e-01 -2.017115205526351929e-01 -4.269934818148612976e-02 9.038937836885452271e-02 -5.938144400715827942e-02 -8.902813494205474854e-02 -5.432097241282463074e-02 -2.403302118182182312e-02 -5.563598126173019409e-02 7.605829089879989624e-02 4.159757867455482483e-02 -1.608487069606781006e-01 -2.022616937756538391e-02 8.652909845113754272e-02 5.343452468514442444e-02 2.748757041990756989e-02 9.524060785770416260e-02 -8.701202273368835449e-02 1.597815454006195068e-01 4.390731081366539001e-02 -3.005836606025695801e-01 1.140448078513145447e-02 -7.937461882829666138e-02 -2.421896010637283325e-01 6.671875715255737305e-02 -2.505971491336822510e-01 6.607005745172500610e-02 1.621982455253601074e-01 2.175724357366561890e-01 -1.076993495225906372e-01 -8.391843177378177643e-03 -2.736253954935818911e-04 -7.018893212080001831e-02 1.820897012948989868e-01 4.661542922258377075e-02 1.077636890113353729e-02 -9.789055585861206055e-02 1.752774268388748169e-01 1.507628113031387329e-01 8.014836162328720093e-02 2.806775867938995361e-01 8.066113293170928955e-02 -5.446778982877731323e-02 7.186084985733032227e-02 -1.043911501765251160e-01 1.442169696092605591e-01 1.293098479509353638e-01 -1.298749446868896484e-01 6.194185465574264526e-02 1.040578037500381470e-01 1.924029737710952759e-02 -1.294582802802324295e-02 1.641646176576614380e-01 5.352479405701160431e-03 -3.069051168859004974e-02 -4.261923953890800476e-02 1.127166152000427246e-01 -3.465845584869384766e-01 -3.802889287471771240e-01 6.403949856758117676e-02 7.048466801643371582e-02 1.600621193647384644e-01 -8.491794019937515259e-02 1.704215556383132935e-01 -1.543095558881759644e-01 0.000000000000000000e+00 0.000000000000000000e+00 0.000000000000000000e+00 0.000000000000000000e+00 
0.000000000000000000e+00 0.000000000000000000e+00 0.000000000000000000e+00 0.000000000000000000e+00 0.000000000000000000e+00 0.000000000000000000e+00 0.000000000000000000e+00 0.000000000000000000e+00 
